svm_type c_svc
kernel_type rbf
gamma 0.03125
nr_class 2
total_sv 296
rho 5.32556
label 1 -1
probA -2.86125
probB 0.125366
nr_sv 148 148
SV
512 1:0 2:0 3:0 
512 1:0 2:0.021941 3:0.016325 
512 1:1.116637 2:0.013778 3:0.002624 
512 1:1.116637 2:0.014981 3:0.003495 
512 1:0 2:0.4689 3:0.008816 
40.96981972696944 1:9.262134 2:0.767166 3:0.635737 
512 1:0 2:0.820704 3:0.022909 
512 1:0 2:0.621672 3:0.00877 
512 1:1.277725 2:0.311347 3:0.001311 
512 1:0 2:0.037782 3:0.00535 
419.5115367646865 1:0.689573 2:0.215263 3:0.119891 
512 1:2.213685 2:0.446395 3:0.063602 
512 1:0 2:0.334447 3:0.129555 
512 1:0 2:0.194457 3:0.073797 
512 1:1.142393 2:0.893944 3:0.005474 
512 1:3.600915 2:0.527624 3:0.034781 
512 1:1.691079 2:0.148616 3:0.090083 
512 1:0.13838 2:0.530682 3:0.138183 
512 1:0 2:0.148874 3:0.015302 
512 1:0.637985 2:0.154731 3:0.066226 
512 1:0 2:0.158377 3:0.022023 
512 1:2.213685 2:0.443794 3:0.0639 
512 1:0 2:0.004159 3:4.3e-05 
512 1:0 2:0.124179 3:0.002039 
512 1:0 2:0.006063 3:5.8e-05 
512 1:3.064141 2:0.306677 3:0.052213 
512 1:0 2:0.007306 3:0.00023 
512 1:0 2:6.4e-05 3:3.8e-05 
512 1:0 2:0.162065 3:0.002802 
512 1:0 2:0.035947 3:0.004288 
512 1:0 2:0.958969 3:0.018379 
512 1:1.470738 2:0.223384 3:0.093867 
301.1103468437053 1:7.208731 2:0.786136 3:0.145643 
512 1:1.202833 2:0.582146 3:0.074732 
512 1:0 2:0.189227 3:0.138964 
512 1:0.139585 2:0.011606 3:0.003948 
512 1:0.640596 2:0.079097 3:0.044954 
512 1:0.141755 2:0.806304 3:0.028469 
512 1:0 2:0.165194 3:0.09821 
512 1:0.210469 2:0.031899 3:0.016497 
512 1:0 2:0.475306 3:0.049183 
512 1:0 2:0.350701 3:0.016376 
512 1:0 2:0.152267 3:0.001927 
512 1:0.518483 2:0.290057 3:0.02451 
512 1:1.908076 2:0.179681 3:0.081768 
512 1:0 2:0.000208 3:6e-06 
512 1:0 2:1e-06 3:0 
512 1:0 2:0.742899 3:0.005923 
512 1:1.422243 2:0.342127 3:0.049966 
512 1:1.241134 2:0.712637 3:0.03855 
512 1:0.375961 2:0.903119 3:0.000297 
512 1:0.375961 2:0.963019 3:0.000582 
512 1:0.375961 2:0.949269 3:0.000806 
512 1:0.664104 2:0.179748 3:0.045651 
512 1:0 2:0.000417 3:9e-06 
512 1:2.810327 2:0.036108 3:0.032788 
512 1:0 2:0.0002 3:3.3e-05 
512 1:0 2:0.022692 3:0.013292 
512 1:0 2:0.193369 3:0.087361 
512 1:0 2:0.371713 3:0.054806 
512 1:0 2:0.021438 3:0.003455 
512 1:0 2:0.534876 3:0.102558 
512 1:0 2:0.331398 3:0.107794 
512 1:0 2:0.587452 3:0.021396 
512 1:0 2:0.216706 3:0.017811 
512 1:0 2:0.150555 3:0.03342 
512 1:0 2:0.250252 3:0.027618 
512 1:0 2:0.01187 3:0.000806 
512 1:0 2:0.139196 3:0.018415 
512 1:0 2:0.202628 3:0.111415 
512 1:1.602341 2:0.117062 3:0.007301 
512 1:0 2:0.573745 3:0.005426 
512 1:0 2:0.009327 3:0.005876 
512 1:0 2:0.1307 3:0.095103 
512 1:0 2:0.124217 3:0.003281 
512 1:0 2:0.187945 3:0.103973 
512 1:1.737637 2:0.042842 3:0.026494 
512 1:2.374328 2:0.143522 3:0.037171 
512 1:0 2:0.168156 3:0.058467 
512 1:0.690742 2:0.109368 3:0.086892 
512 1:0 2:0.549537 3:0.120338 
512 1:0 2:0.7437 3:0.080816 
512 1:2.290278 2:0.68633 3:0.019867 
512 1:2.513936 2:0.648229 3:0.036287 
512 1:0 2:0.413305 3:0.12237 
512 1:0 2:0.96274 3:0.00017 
512 1:0 2:0.038569 3:0.002295 
512 1:0 2:0.044075 3:0.025235 
512 1:1.479364 2:0.149309 3:0.08611 
512 1:1.009737 2:0.580099 3:0.076794 
512 1:1.794198 2:0.043591 3:0.012917 
512 1:0 2:0.004377 3:0.002824 
512 1:0 2:0.663804 3:0.022923 
512 1:0 2:0.060972 3:0.002951 
512 1:0 2:0.705078 3:0.041097 
512 1:0.613822 2:0.115268 3:0.063816 
512 1:0.613822 2:0.105126 3:0.07224 
472.3332122481161 1:4.135862 2:0.099967 3:0.011652 
512 1:0 2:0.438679 3:0.060034 
512 1:0 2:0.167599 3:0.005678 
512 1:0.633076 2:0.067105 3:0.031693 
512 1:0.613822 2:0.092232 3:0.050777 
512 1:0 2:0.099771 3:0.043549 
512 1:0 2:0.614181 3:0.017062 
512 1:0 2:0.003139 3:9.8e-05 
512 1:0 2:0.000577 3:8.8e-05 
512 1:3.430937 2:0.02685 3:0.006332 
512 1:0 2:0.147741 3:0.011171 
512 1:0 2:0.707 3:0.061109 
512 1:0 2:0.380773 3:0.043518 
512 1:0 2:0.016637 3:0.003641 
512 1:0 2:0.265384 3:0.097179 
512 1:0 2:0.214162 3:0.005877 
512 1:0 2:0.048392 3:0.009589 
512 1:0 2:2.5e-05 3:1.2e-05 
512 1:0.664104 2:0.086708 3:0.038727 
512 1:2.218707 2:0.28743 3:0.031131 
512 1:1.185203 2:0.093959 3:0.003796 
512 1:0 2:0.023254 3:0.000405 
512 1:0 2:0.152241 3:0.008091 
512 1:0 2:0.266384 3:0.065068 
512 1:0 2:0.157924 3:0.096136 
512 1:0 2:0.343113 3:0.061243 
512 1:3.851893 2:0.976852 3:0.058461 
512 1:3.851893 2:0.990603 3:0.03347 
512 1:0 2:0.085912 3:0.026601 
512 1:0 2:0.740235 3:0.01493 
512 1:0 2:0.234672 3:0.089274 
512 1:3.180448 2:0.06581 3:0.002687 
512 1:0.700096 2:0.342298 3:0.025775 
512 1:0 2:0.041858 3:0.00255 
512 1:0 2:0.493492 3:0.09244 
512 1:0 2:0.09414 3:0.082944 
512 1:0 2:0.000787 3:0.000118 
99.86777261282812 1:0 2:0.302692 3:0.144588 
512 1:0 2:8.1e-05 3:5e-06 
512 1:0 2:0.010101 3:0.001594 
512 1:0 2:0.622331 3:0.001628 
512 1:0 2:0.181139 3:0.001489 
512 1:0 2:0.398327 3:0.044623 
512 1:0 2:0.191703 3:0.00188 
512 1:0 2:0.169486 3:0.059275 
512 1:0 2:0.247511 3:0.029587 
512 1:0 2:0.768772 3:0.0036 
512 1:0 2:0.826948 3:0.004889 
512 1:2.218707 2:0.137242 3:0.017801 
512 1:0 2:0.357517 3:0.037548 
512 1:0 2:0.010821 3:0.005666 
-512 1:0 2:0.021732 3:0.020069 
-512 1:0 2:0.758446 3:0.039627 
-512 1:0 2:0.306759 3:0.019529 
-512 1:0 2:0.312028 3:0.032801 
-512 1:0 2:0.521271 3:0.031331 
-512 1:0 2:0.052224 3:0.02038 
-512 1:0 2:0.105796 3:0.017193 
-512 1:0 2:0.049393 3:0.012128 
-512 1:2.339483 2:0.016494 3:0.000593 
-512 1:1.122966 2:0.014007 3:0.006784 
-512 1:1.087253 2:0.003051 3:0.000621 
-512 1:1.17149 2:0.001505 3:3e-05 
-512 1:0 2:0.086902 3:0.01173 
-512 1:0 2:0.046907 3:0.013389 
-512 1:0 2:0.527893 3:0.194621 
-512 1:0 2:0.296691 3:0.112245 
-512 1:0 2:0.184446 3:0.086943 
-512 1:0.828463 2:0 3:0 
-512 1:3.977117 2:0 3:0 
-512 1:1.648164 2:0 3:0 
-512 1:0 2:0.518069 3:0.039541 
-512 1:0 2:0.478528 3:0.039755 
-512 1:0 2:0.402129 3:0.04484 
-512 1:0 2:0.234982 3:0.114668 
-512 1:0 2:0.099743 3:0.025364 
-512 1:0 2:0.074378 3:0.019122 
-512 1:2.581035 2:0.984 3:0.020253 
-512 1:1.011489 2:0.963747 3:0.049666 
-512 1:0 2:0.749406 3:0.119891 
-512 1:0 2:0.361524 3:0.024368 
-512 1:0 2:0.020577 3:0.015137 
-512 1:0 2:0.230665 3:0.014092 
-512 1:0 2:0.210722 3:0.033519 
-512 1:0 2:0.177203 3:0.024596 
-512 1:0 2:0.143219 3:0.015053 
-512 1:0 2:0.128166 3:0.038741 
-512 1:0 2:0.425593 3:0.02129 
-173.1207377677491 1:0.660215 2:0.349501 3:0.005622 
-512 1:1.739869 2:0.343879 3:0.011133 
-512 1:0.069218 2:0.37762 3:0.015528 
-262.295063521819 1:0.034609 2:0.362092 3:0.015452 
-512 1:0 2:0.291846 3:0.016697 
-512 1:0 2:0.290536 3:0.020494 
-512 1:0 2:0.166679 3:0.012706 
-512 1:0 2:0.740222 3:0.034891 
-512 1:0 2:0.701739 3:0.038271 
-512 1:0 2:0.663468 3:0.171143 
-512 1:0 2:0.399458 3:0.026524 
-512 1:0 2:0.372934 3:0.024044 
-512 1:0 2:0.030467 3:0.027101 
-512 1:0 2:0.025013 3:0.009937 
-512 1:1.851302 2:7e-05 3:5.9e-05 
-512 1:0.829894 2:1.1e-05 3:2e-06 
-511.5720378861649 1:0 2:0.89638 3:0.034053 
-512 1:0 2:0.204473 3:0.01526 
-512 1:0 2:0.145796 3:0.063836 
-512 1:0 2:0.08196 3:0.032576 
-511.9649696908614 1:0 2:0.550409 3:0.021391 
-512 1:0 2:0.218912 3:0.02778 
-512 1:0 2:0.153053 3:0.019245 
-512 1:0 2:0.0411 3:0.027952 
-512 1:1.095088 2:0.001148 3:0.000441 
-512 1:1.129493 2:0.547531 3:0.013806 
-512 1:0.552216 2:0.533726 3:0.05329 
-512 1:0 2:0.480436 3:0.02622 
-512 1:0 2:0.02499 3:0.01074 
-512 1:0 2:0.064622 3:0.030889 
-512 1:2.58551 2:1e-06 3:0 
-512 1:1.013243 2:1e-06 3:0 
-512 1:0 2:0.20147 3:0.014942 
-512 1:1.468178 2:8.7e-05 3:3e-05 
-512 1:0 2:0.405437 3:0.100794 
-512 1:0 2:0.304643 3:0.028145 
-512 1:0 2:0.160434 3:0.02968 
-512 1:0 2:0.113311 3:0.022892 
-512 1:0 2:0.090419 3:0.018627 
-512 1:0 2:0.031152 3:0.011372 
-512 1:2.005108 2:0.542155 3:0.017644 
-512 1:0 2:0.488963 3:0.021638 
-512 1:0 2:0.068158 3:0.017223 
-512 1:0 2:0.037847 3:0.015033 
-512 1:0 2:0.648379 3:0.11288 
-512 1:0 2:0.535499 3:0.041916 
-512 1:0 2:0.203144 3:0.050094 
-512 1:3.413056 2:0.64018 3:0.089961 
-512 1:0 2:0.473318 3:0.044219 
-512 1:0 2:0.429099 3:0.019652 
-512 1:0 2:0.402136 3:0.026718 
-512 1:0 2:0.329148 3:0.148427 
-512 1:0 2:0.1149 3:0.024176 
-512 1:0 2:0.070543 3:0.019182 
-512 1:0 2:0.035726 3:0.035726 
-512 1:0 2:0.256005 3:0.020679 
-512 1:0 2:0.097817 3:0.026379 
-512 1:1.399338 2:0.008229 3:0.00047 
-512 1:2.173974 2:0.432927 3:0.055134 
-512 1:0.851965 2:0.377793 3:0.013012 
-512 1:1.448603 2:0.000609 3:0.000165 
-512 1:2.540776 2:0.959921 3:0.042964 
-512 1:0 2:0.20741 3:0.016833 
-512 1:0 2:0.177743 3:0.016193 
-512 1:0 2:0.072833 3:0.02954 
-512 1:0 2:0.541027 3:0.03281 
-512 1:0 2:0.085157 3:0.01577 
-512 1:0 2:0.031625 3:0.012377 
-512 1:0.847331 2:0.000132 3:1.9e-05 
-512 1:4.067149 2:0.000113 3:0.000104 
-477.5794552066109 1:0 2:0.147752 3:0.011577 
-512 1:0 2:0.168536 3:0.015332 
-512 1:0 2:0.153204 3:0.017328 
-512 1:0 2:0.050041 3:0.013719 
-512 1:0 2:0.097333 3:0.012646 
-512 1:0 2:0.072821 3:0.014627 
-512 1:0 2:0.058194 3:0.01065 
-512 1:0.881766 2:0.499669 3:0.055489 
-512 1:0 2:0.256138 3:0.013832 
-512 1:0 2:0.212219 3:0.103269 
-512 1:0 2:0.10895 3:0.018429 
-512 1:0 2:0.083917 3:0.025629 
-512 1:0 2:0.179513 3:0.144424 
-512 1:0 2:0.930144 3:0.043928 
-512 1:0.763951 2:0.792856 3:0.018929 
-512 1:3.359458 2:0.773927 3:0.08218 
-512 1:1.057276 2:0.691748 3:0.023966 
-512 1:0.542044 2:0.657053 3:0.029981 
-512 1:0 2:0.143826 3:0.075649 
-512 1:0 2:0.011642 3:0.009753 
-512 1:0 2:0.845556 3:0.051288 
-512 1:0 2:0.126556 3:0.072251 
-512 1:1.412247 2:0.00037 3:0.000197 
-512 1:1.361514 2:0.948198 3:0.102953 
-512 1:2.379742 2:0.931124 3:0.005366 
-512 1:0 2:0.141077 3:0.056185 
-512 1:0 2:0.084892 3:0.014309 
-512 1:0 2:0.065647 3:0.016174 
-96.17572578459955 1:2.34843 2:0.959031 3:0.000215 
-325.0846983384988 1:7.527147 2:0.934847 3:0.025581 
-512 1:4.316041 2:0.909266 3:0.062327 
-512 1:0.850241 2:0.846939 3:0.041885 
-512 1:0 2:0.760741 3:0.038812 
-512 1:0 2:0.667386 3:0.029635 
-512 1:0 2:0.078558 3:0.03516 
-512 1:2.403276 2:0.006925 3:0.000999 
-512 1:1.658342 2:0.000359 3:1.1e-05 
-512 1:3.02166 2:0.000312 3:4.6e-05 
-512 1:0.863579 2:0.000266 3:0.000126 
-512 1:2.377897 2:3.4e-05 3:2.9e-05 
-512 1:0.804001 2:4e-06 3:0 
