svm_type c_svc
kernel_type rbf
gamma 0.03125
nr_class 2
total_sv 645
rho 109.235
label 1 -1
probA -2.34002
probB 0.634499
nr_sv 322 323
SV
32768 1:0 2:0.076341 3:0.00824 
32768 1:0.016 2:0.008925 3:0.001129 
32768 1:0 2:0.159279 3:0.00451 
32768 1:0.001692 2:0.054085 3:0.005281 
32768 1:0.004462 2:0.237707 3:0.038343 
32768 1:0.004462 2:0.422937 3:0.017361 
32768 1:0.374194 2:0.895807 3:0.038363 
32768 1:0.001692 2:0.285717 3:0.005073 
32768 1:0.009538 2:0.041822 3:0.00788 
32768 1:0 2:0.382332 3:0.026403 
32768 1:0.000109 2:0.799712 3:0.080445 
32768 1:0.000109 2:0.752552 3:0.065766 
4385.123843076894 1:4.193968 2:0.262875 3:0.023324 
32768 1:0.989926 2:0.316352 3:0.013805 
32768 1:1.015178 2:0.196875 3:0.094744 
32768 1:0.008385 2:0.380629 3:0.012017 
32768 1:1.04792 2:0.187287 3:0.068405 
2201.262405427462 1:3.626554 2:0.899388 3:0.881773 
32768 1:0 2:0.043356 3:0.00565 
32768 1:0 2:0.157288 3:0.015114 
32768 1:2.052869 2:0.550778 3:0.036685 
32768 1:0 2:0.202959 3:0 
32768 1:2.052869 2:0.803437 3:0.026009 
32768 1:1.987627 2:0.809601 3:0.0685 
32768 1:4.3e-05 2:9.1e-05 3:2e-05 
32768 1:4.3e-05 2:0.071118 3:0.002273 
32768 1:0 2:0.060105 3:0 
32768 1:0 2:0.19223 3:0.032261 
32768 1:0 2:0.161444 3:0.019948 
32768 1:0 2:0.105488 3:0.068065 
32768 1:1.073417 2:0.101065 3:0.022785 
32768 1:1.073417 2:0.004822 3:0.001804 
32768 1:2.490505 2:0.312787 3:0.055033 
32768 1:2.490505 2:0.282075 3:0.030928 
32768 1:2.30636 2:0.385333 3:0.086361 
32768 1:0.048 2:0.354387 3:0.009359 
32768 1:0.096 2:0.300658 3:0.102572 
32768 1:0.114 2:0.767059 3:0.017057 
32768 1:0.577387 2:0.619645 3:0.009982 
32768 1:0.038101 2:0.498664 3:0.000297 
32768 1:1.189327 2:0.715653 3:0 
32768 1:1.148067 2:0.669275 3:0.04779 
32768 1:2.392063 2:0.844944 3:0.024231 
32768 1:0.03 2:0.38404 3:0.006925 
32768 1:2.510004 2:0.670596 3:0.034962 
32768 1:1.851419 2:0.913707 3:0.038394 
32768 1:3.320657 2:0.007717 3:0.003899 
32768 1:0.054993 2:0.686385 3:0.046959 
32768 1:0 2:0.015308 3:0.002139 
32768 1:0 2:0.573295 3:0.00182 
32768 1:0 2:0.208263 3:0.006846 
32768 1:0.120346 2:0.05107 3:0.027093 
32768 1:0.599508 2:0.458023 3:0.042685 
32768 1:0.703589 2:0.187461 3:0.089791 
32768 1:0.615806 2:0.389053 3:0.035749 
32768 1:3.3e-05 2:0.336271 3:0.01118 
32768 1:0 2:0.284495 3:0.097888 
32768 1:0.167193 2:0.428916 3:0.052175 
32768 1:0 2:0.067573 3:0.002029 
32768 1:0 2:0.218027 3:0.005435 
32768 1:0 2:0.025159 3:0.002031 
28692.07129190971 1:4.662731 2:0.034775 3:0.028483 
32768 1:0 2:0.538097 3:0.025405 
32768 1:0 2:0.062712 3:0 
32768 1:1.100007 2:0.052489 3:0.001706 
32768 1:0.04869 2:0.085467 3:0.007914 
32768 1:0.78865 2:0.37449 3:0.052672 
32768 1:0.78865 2:0.383308 3:0.049087 
32768 1:0 2:0.148026 3:0.068084 
32768 1:0.507692 2:0.079712 3:0.013908 
32768 1:0 2:0.254771 3:0.066387 
32768 1:1.246664 2:0.192312 3:0 
32768 1:0 2:0.00381 3:0.000281 
32768 1:0.206769 2:0.725378 3:0.036823 
32768 1:0 2:0.066579 3:0.007515 
32768 1:0 2:0.180917 3:0.051868 
32768 1:0 2:0.290853 3:0.116429 
32768 1:0 2:0.594661 3:0.049264 
32768 1:0 2:0.000814 3:5.7e-05 
32768 1:0 2:0.192204 3:0.013962 
32768 1:0 2:0.102965 3:0.005944 
32768 1:0 2:0.145148 3:0.045686 
32768 1:0 2:0.013819 3:0.000371 
32768 1:0 2:0.040892 3:0.008162 
32768 1:0 2:0.104689 3:0.006631 
32768 1:0 2:0.142326 3:0.008776 
32768 1:0 2:0.011045 3:0.001036 
32768 1:0.000615 2:0.14596 3:0.053024 
32768 1:0 2:0.164641 3:0.0841 
32768 1:3.542525 2:0.429109 3:0.065468 
32768 1:0 2:0.736221 3:0.057831 
14985.59030943498 1:4.426385 2:0.638566 3:0.005048 
32768 1:0 2:0.010415 3:0.002963 
32768 1:0 2:0.064734 3:0.039804 
32768 1:0 2:0.000177 3:0.000142 
32768 1:0 2:0.017334 3:0.004699 
32768 1:0.128 2:0.278896 3:0.002533 
32768 1:0 2:0.016046 3:0.004185 
32768 1:0 2:0.643182 3:0.039544 
32768 1:0 2:0.01413 3:0.010116 
32768 1:0 2:0.014646 3:0.002051 
32768 1:0 2:0.020354 3:0.004694 
32768 1:1.011952 2:0.419326 3:0.074127 
32768 1:0.058 2:0.202748 3:0.003292 
32768 1:0 2:0.044995 3:0.003069 
32768 1:1.495184 2:0.94187 3:0.024436 
32768 1:3.790294 2:0.216269 3:0.07454 
32768 1:0.000173 2:0.405442 3:0 
32768 1:0.248769 2:0.51632 3:0.010495 
32768 1:0 2:0.847282 3:0.021611 
32768 1:0 2:0.618929 3:0.003568 
32768 1:0 2:0.824029 3:0.002348 
32768 1:0 2:0.167705 3:0.025361 
32768 1:0 2:0.025494 3:0.001137 
32768 1:0 2:0.0883 3:0.005101 
32768 1:0 2:0.028022 3:0.000694 
32768 1:0 2:0.00935 3:0.000626 
32768 1:0 2:0.109345 3:0.001993 
32768 1:0 2:0.271677 3:0.008039 
32768 1:0 2:0.526715 3:0.027326 
32768 1:0 2:0.068274 3:0.009362 
32768 1:0 2:0.646003 3:0.002542 
32768 1:0.021515 2:0.349749 3:0.00247 
32768 1:0 2:0.049198 3:0.032594 
32768 1:0 2:0.517663 3:0.090529 
32768 1:0 2:0.04807 3:0.001598 
32768 1:0.312742 2:0.570699 3:0.068046 
32768 1:0 2:0.050594 3:0.005324 
32768 1:0 2:0.014607 3:0.00165 
32768 1:0 2:0.366789 3:0.102597 
32768 1:1.569841 2:0.205714 3:0.033672 
32768 1:0.056923 2:0.657851 3:0.045208 
32768 1:0.056923 2:0.612721 3:0.092403 
32768 1:0.234442 2:0.019976 3:0.007843 
32768 1:0.027923 2:0.603772 3:0.02719 
32768 1:0.07 2:0.540032 3:0.016007 
32768 1:0 2:0.000957 3:8.1e-05 
32768 1:-4e-06 2:0.697245 3:0.000171 
32768 1:0.00953 2:0.088787 3:0.002137 
32768 1:0 2:0.063243 3:0.010963 
32768 1:0.00953 2:0.235574 3:0.003361 
32768 1:0 2:0.004342 3:0.000134 
32768 1:0 2:0.019568 3:0.016367 
32768 1:0 2:0.668598 3:0.001134 
32768 1:0.680944 2:0.951724 3:0.000512 
32768 1:0 2:0.52571 3:0.012346 
32768 1:0 2:0.38044 3:0.007482 
32768 1:0.611189 2:0.150358 3:0.076737 
32768 1:0 2:0.073733 3:0.027008 
32768 1:0 2:0.077397 3:0.028351 
32768 1:-0.085628 2:0.149338 3:0.0825 
32768 1:2.1e-05 2:0.000686 3:6.6e-05 
32768 1:0 2:0.003649 3:0.001145 
32768 1:0 2:0.019837 3:0.003292 
32768 1:0 2:0.312959 3:0.007866 
12475.06958652678 1:1.38619 2:0.700256 3:0.084763 
32617.26894374625 1:1.38619 2:0.700256 3:0.084763 
32768 1:0 2:0.359195 3:0.04518 
32768 1:0 2:0.300279 3:0.012971 
32768 1:0 2:0.675926 3:0.002599 
32768 1:0 2:0.154821 3:0.009586 
32768 1:4.6e-05 2:0.805342 3:0.062738 
32768 1:0 2:0.495307 3:0.088621 
32768 1:4.052522 2:0.097114 3:0.005112 
32768 1:1.914 2:0.137091 3:0.026348 
32768 1:4.8e-05 2:0.177596 3:0.011141 
32768 1:8.3e-05 2:0.900911 3:0.019371 
32768 1:0 2:0.116212 3:0.002213 
32768 1:0.605594 2:0.010698 3:0.002281 
32768 1:0.248831 2:0.174523 3:0.052849 
32768 1:0.137307 2:0.373029 3:0.110866 
32768 1:0.023385 2:0.053795 3:0.013033 
32768 1:1.133318 2:0.443067 3:0.063716 
32768 1:0 2:0.708271 3:0.032273 
32768 1:1.08485 2:0.359181 3:0.090857 
32768 1:0.592424 2:0.892126 3:0.017323 
32768 1:0 2:0.876576 3:0.057552 
32768 1:0 2:0.052085 3:0.023646 
32768 1:0 2:0.186982 3:0.043259 
32768 1:1.068072 2:0.895649 3:0.006957 
32768 1:0 2:0.358686 3:0.099535 
32768 1:0 2:0.145878 3:0.002162 
32768 1:0 2:0.110813 3:0.004029 
32768 1:0 2:0.295477 3:0.011239 
32768 1:0 2:0.568658 3:0.057993 
32768 1:0 2:0.01614 3:0.004856 
32768 1:0 2:0.09538 3:0.016028 
32768 1:0 2:0.315589 3:0.122542 
32768 1:0 2:0 3:0 
32768 1:0 2:0.036477 3:0.005032 
32768 1:-0.021313 2:0.091959 3:0.00357 
32768 1:0 2:0.009479 3:0.000298 
32768 1:0 2:0.043901 3:0.017118 
32768 1:0.005161 2:0.339353 3:0.004099 
32768 1:3.329888 2:0.577969 3:0 
32768 1:0 2:0.316269 3:0.045201 
32768 1:0 2:0.470606 3:0.062644 
32768 1:0 2:0.826475 3:0.001592 
32768 1:0.288694 2:0.369871 3:0.087154 
32768 1:1.516834 2:0.141325 3:0.03607 
32768 1:4.992841 2:0.001774 3:0.00047 
32768 1:0 2:0.784691 3:0.08467 
32768 1:0 2:0 3:0 
32768 1:0 2:0.027649 3:0.013714 
32768 1:0 2:0.006083 3:0.002082 
32768 1:0 2:0.11701 3:0.019227 
32768 1:1.197398 2:0.051102 3:0.017516 
32768 1:1.197398 2:0.323577 3:0.074485 
32768 1:1.635864 2:0.614527 3:0.027441 
32768 1:0 2:0.414249 3:0.104518 
32768 1:-0.039879 2:0.618882 3:0.052066 
32768 1:1.006588 2:0.500833 3:0.015593 
32768 1:0 2:0.233929 3:0.079008 
32768 1:0.000202 2:0.78799 3:0.007205 
32768 1:0 2:0.001856 3:0.000292 
32768 1:0 2:0.491381 3:0.077533 
32768 1:0.045692 2:0.160041 3:0.089105 
32768 1:1.383544 2:0.097496 3:0.014435 
29236.75330713094 1:7.485265 2:0.02676 3:0.024257 
32768 1:0 2:0.335688 3:0.011833 
32768 1:0 2:0 3:0 
32768 1:0 2:0.571621 3:0.037259 
32768 1:0 2:0.186142 3:0.024196 
32768 1:0 2:0.636462 3:0.038197 
32768 1:1.196239 2:0.476603 3:0.006414 
32768 1:0.114 2:0.076373 3:0.016553 
32768 1:0.546386 2:0.530221 3:0 
32768 1:0 2:0.180905 3:0.023097 
32768 1:7e-06 2:0.017819 3:0.000239 
32768 1:0 2:4e-06 3:2e-06 
32768 1:0.578474 2:0.942608 3:0.044267 
32768 1:0 2:1.5e-05 3:3e-06 
32768 1:0 2:2.5e-05 3:4e-06 
32768 1:0.051692 2:0.076822 3:0.002122 
32768 1:0 2:0.224406 3:0.032308 
32768 1:1.162091 2:0.051083 3:0.003054 
32768 1:1.313065 2:0.144718 3:0.057452 
32768 1:0 2:0.174277 3:0.07645 
32768 1:0 2:0.174277 3:0.07645 
32768 1:1.313065 2:0.15045 3:0.05027 
32768 1:0 2:0.179407 3:0.021784 
32768 1:0 2:0.519336 3:0.027187 
32768 1:-0.005654 2:0.0143 3:0.002455 
32768 1:4.8e-05 2:0.080274 3:0.043396 
32768 1:-0.015346 2:0.004221 3:0.000404 
32768 1:0 2:0.13447 3:0.048432 
32768 1:0 2:2.1e-05 3:3e-06 
32768 1:0 2:0.490254 3:0.064646 
32768 1:0 2:0.371313 3:0.127307 
32768 1:0.007692 2:0.083499 3:0.000646 
32768 1:0 2:0.145133 3:0.03401 
32768 1:0 2:0.457165 3:0.015318 
32768 1:0 2:0.001716 3:6.1e-05 
32768 1:-7e-06 2:0.248896 3:0.06418 
32768 1:0 2:0.194763 3:0 
32768 1:0 2:0.103396 3:0 
32768 1:0 2:0.174195 3:0.021942 
32768 1:1.7e-05 2:0.053471 3:0.033311 
32768 1:1.3e-05 2:0.297101 3:0.010965 
32768 1:0 2:0.000193 3:5e-06 
32768 1:0 2:0.069372 3:0.020054 
32768 1:-6e-06 2:0.000571 3:0.000131 
32768 1:0 2:0.445833 3:0.000404 
32768 1:0 2:0.287419 3:0.118918 
32768 1:0 2:0.434856 3:0.019131 
32768 1:0.00648 2:0.738491 3:0.025003 
32768 1:0 2:0.197002 3:0.068084 
32768 1:0 2:0.772567 3:0.010428 
32768 1:0 2:0.235967 3:0.009066 
32768 1:0 2:0.400783 3:0.000225 
32768 1:0 2:0.472363 3:0.017196 
32768 1:0 2:0.426264 3:0.0005 
32768 1:0 2:0.280711 3:0.05598 
32768 1:0 2:0.003169 3:0.000217 
32768 1:0.492139 2:0.026914 3:0.007344 
32768 1:0 2:0.047622 3:0.0041 
32768 1:7.604822 2:0.000294 3:0.000289 
32768 1:0.806073 2:0.146114 3:0.04219 
32768 1:0 2:0.536329 3:0.084769 
32768 1:0 2:0.001459 3:9.1e-05 
32768 1:-0.106615 2:0.018598 3:0.002353 
32768 1:0 2:0.200342 3:0 
32768 1:0 2:0.7773 3:0.026817 
32768 1:0 2:0.207754 3:0.007194 
32768 1:-0.000492 2:0.134636 3:0.004333 
32768 1:0.021 2:0.1031 3:0.030375 
32768 1:1e-05 2:0.188409 3:0.037688 
32768 1:0.460758 2:0.026727 3:0.010157 
32768 1:0 2:0.274945 3:0.001222 
32768 1:0.039577 2:0.622548 3:0.075015 
32768 1:0 2:0.415069 3:0.085352 
32768 1:0.001012 2:0.315357 3:0.065376 
32768 1:0.684173 2:0.435999 3:0.071029 
28314.54032824162 1:5.30924 2:0.907815 3:0.048421 
32768 1:5.164948 2:0.947381 3:0.033534 
2878.222852577947 1:6.771785 2:0.930943 3:0.128943 
32768 1:0 2:0.013033 3:0.001633 
32768 1:0.00347 2:0.466247 3:0.020144 
32768 1:0.00347 2:0.38416 3:0.016518 
32768 1:6e-06 2:0.021186 3:0.006259 
32768 1:0 2:0.223431 3:0.042106 
32768 1:1.660808 2:0.525163 3:0 
32768 1:0 2:0.565722 3:0.052715 
32768 1:0.005726 2:0.977192 3:0.019049 
32768 1:1.978725 2:0.152672 3:0 
32768 1:1.740364 2:0.000456 3:4e-05 
32768 1:0 2:0.11225 3:0.018772 
32768 1:0.024462 2:0.035957 3:0.014237 
32768 1:0.142154 2:0.110321 3:0.059151 
32768 1:0 2:0.445494 3:0.089662 
32768 1:0 2:0.20046 3:0.126182 
32768 1:0 2:0.448531 3:0.000261 
32768 1:0 2:0.117488 3:0.000682 
32768 1:3.686836 2:0.070252 3:0.007835 
32768 1:0 2:0.116643 3:0.019035 
32768 1:0 2:0.088149 3:0.020478 
32768 1:0.282268 2:0.220173 3:0.026897 
32768 1:0 2:0.234078 3:0.008041 
32768 1:1.68939 2:0.01083 3:0.007136 
32768 1:0 2:0.322662 3:0.079459 
32768 1:0 2:0.014058 3:0.003955 
32768 1:0 2:0.148867 3:0.082882 
-32768 1:0 2:0.065826 3:0.015967 
-32768 1:0.138635 2:0.186046 3:0.049118 
-32768 1:0 2:0.088246 3:0.006027 
-26556.95217716708 1:0 2:0.029955 3:0.007698 
-32768 1:0 2:0.691895 3:0.017784 
-32768 1:0.633575 2:0.467473 3:0.027193 
-32768 1:0 2:0.326348 3:0.022267 
-32768 1:0 2:0.245042 3:0.015319 
-32768 1:0 2:0.206508 3:0.082535 
-32768 1:0 2:0.108928 3:0.022134 
-32768 1:0 2:0.086794 3:0.010885 
-32768 1:0.142154 2:0.014321 3:0.007629 
-32768 1:0.6297 2:0.402379 3:0.007545 
-32768 1:0.000342 2:0.37916 3:0.018782 
-32768 1:3.349799 2:0.157851 3:0 
-32768 1:0 2:0.074841 3:0.017721 
-32768 1:0 2:0.048898 3:0.014183 
-32768 1:0.017438 2:0.453082 3:0.0127 
-32768 1:1.508101 2:0.235563 3:0 
-32768 1:0 2:0.523932 3:0.046682 
-32768 1:-0.001272 2:0.460311 3:0.009636 
-32768 1:-0.021313 2:0.439133 3:0.138508 
-32768 1:-0.044853 2:0.300625 3:0.092376 
-32768 1:0 2:0.208248 3:0.027487 
-32768 1:0 2:0.180761 3:0.017785 
-32768 1:0 2:0.156556 3:0.015743 
-32768 1:0 2:0.128954 3:0.020412 
-32768 1:0 2:0.102149 3:0.009899 
-28070.88426483914 1:6.154715 2:0.938226 3:0.001361 
-32768 1:0 2:0.017673 3:0.008398 
-32768 1:1.355538 2:0.354189 3:0.00037 
-32768 1:3.974741 2:0.932175 3:0.00672 
-32768 1:0.513766 2:0.804073 3:0.049474 
-32768 1:0 2:0.021728 3:0.012638 
-32768 1:0 2:0.117232 3:0.044328 
-32768 1:-0.00775 2:0.367833 3:0.068164 
-32768 1:4.6e-05 2:0.264155 3:0.025501 
-32768 1:4.6e-05 2:0.238655 3:0.069575 
-32768 1:4.6e-05 2:0.125809 3:0.030513 
-32768 1:0.096923 2:0.095295 3:0.039497 
-32768 1:0.609229 2:0.055798 3:0.014317 
-32768 1:0.009231 2:0.036524 3:0.008251 
-32768 1:0 2:0.174873 3:0.015361 
-32768 1:-8.7e-05 2:0.136912 3:0.010671 
-32768 1:-0.005813 2:0.126241 3:0.060334 
-32768 1:-0.012233 2:0.065907 3:0.064028 
-32768 1:0 2:0.674302 3:0.01646 
-32768 1:0.000124 2:0.645532 3:0.0127 
-32768 1:0.033441 2:0.610803 3:0.011269 
-32768 1:0.306564 2:0.560017 3:0.032455 
-32768 1:0.044 2:0.49587 3:0.016701 
-32768 1:0.699452 2:0.46754 3:0.00982 
-32768 1:1.004282 2:0.448367 3:0.001983 
-32768 1:0 2:0.032794 3:0.00988 
-32768 1:0 2:0.022913 3:0.005895 
-32768 1:0 2:0.09441 3:0.006172 
-32768 1:0.391731 2:0.360297 3:0.013989 
-32768 1:2.462308 2:0.346308 3:0.038854 
-32768 1:0 2:0.279344 3:0.047053 
-32768 1:0 2:0.232291 3:0.082461 
-32768 1:0 2:0.14983 3:0.059253 
-32768 1:0 2:0.090577 3:0.03144 
-32768 1:0 2:0.021508 3:0.006419 
-32768 1:5.4e-05 2:0.834332 3:0.014935 
-32768 1:0.005477 2:0.802253 3:0.01536 
-32768 1:1.015979 2:0.013427 3:0.003578 
-32768 1:0 2:0.046953 3:0.014716 
-32768 1:0 2:0.129387 3:0.008406 
-32768 1:0 2:0.046845 3:0.008063 
-32768 1:1.251796 2:0.873713 3:0.001747 
-32768 1:0 2:0.248541 3:0.122119 
-32768 1:0 2:0.068177 3:0.020933 
-32768 1:0 2:0.047244 3:0.010408 
-32768 1:0 2:0.028793 3:0.012165 
-32768 1:0 2:0.016628 3:0.012731 
-32768 1:1.810414 2:0.305989 3:0.112822 
-32768 1:0 2:0.011214 3:0.007761 
-6689.032539629268 1:3.097118 2:0.841624 3:2.2e-05 
-32768 1:1.294616 2:0.726834 3:0 
-32768 1:0.375092 2:0.685633 3:0.008841 
-32768 1:4.000806 2:0.000125 3:2.2e-05 
-32768 1:0.41179 2:0.928429 3:0.011835 
-32768 1:0.759515 2:0.116291 3:0.009724 
-32768 1:0 2:0.357887 3:0.011214 
-32768 1:0.868508 2:0.020723 3:0.004136 
-32768 1:0 2:0.00949 3:0.00815 
-2967.353505772313 1:2.141302 2:0.805023 3:0 
-32768 1:0 2:0.261837 3:0.014413 
-32768 1:0 2:0.247424 3:0.013021 
-32768 1:0 2:0.226338 3:0.03299 
-32768 1:0 2:0.193348 3:0.07102 
-32768 1:0 2:0.071751 3:0.011275 
-32768 1:0.001359 2:0.051786 3:0.014299 
-32768 1:0.091064 2:0.037487 3:0.032946 
-32768 1:0 2:0.007977 3:0.006941 
-32768 1:0 2:0.351318 3:0.010315 
-32768 1:0 2:0.215991 3:0.021107 
-32768 1:1.940139 2:0.79434 3:0.00999 
-32768 1:0.1575 2:0.735878 3:0.030178 
-32768 1:0 2:0.027481 3:0.009226 
-32768 1:0 2:0.032386 3:0.017901 
-32768 1:0 2:0.09127 3:0.008746 
-32768 1:0 2:0.080705 3:0.052706 
-32768 1:0 2:0.027999 3:0.013469 
-32768 1:0 2:0.150309 3:0.01017 
-32768 1:0 2:0.174058 3:0.007797 
-32768 1:0 2:0.147886 3:0.014507 
-32768 1:0 2:0.03733 3:0.017871 
-32768 1:2.6e-05 2:0.908187 3:0.020864 
-32768 1:0.362898 2:0.801242 3:0.034669 
-32768 1:0 2:0.705903 3:0.02593 
-32768 1:1.458992 2:0.735584 3:0 
-32768 1:4.437858 2:0.983206 3:0.003019 
-32768 1:0 2:0.180334 3:0.008191 
-32768 1:0 2:0.172144 3:0.017422 
-32768 1:0 2:0.154721 3:0.06393 
-32768 1:0 2:0.090791 3:0.013198 
-32768 1:0 2:0.077593 3:0.007339 
-32768 1:0 2:0.046766 3:0.007114 
-32768 1:0 2:0.039652 3:0.011082 
-32768 1:1.908925 2:0.62138 3:0.019747 
-32768 1:0 2:0.584854 3:0.018222 
-32768 1:2.003332 2:0.030162 3:0.010821 
-32768 1:0 2:0.230832 3:0.122112 
-32768 1:0 2:0.06479 3:0.007363 
-32768 1:6.56449 2:0.022541 3:0.000459 
-32768 1:0 2:0.111647 3:0.012143 
-32768 1:0 2:0.055358 3:0.049611 
-28366.51970445397 1:7.991179 2:5.1e-05 3:4.4e-05 
-32768 1:0 2:0.101215 3:0.014174 
-32768 1:0 2:0.08704 3:0.016895 
-32768 1:0 2:0.058196 3:0.009363 
-32768 1:0 2:0.035863 3:0.010332 
-32768 1:0.74376 2:0.563332 3:0 
-32768 1:0.015414 2:0.535892 3:0.094483 
-32768 1:2.173312 2:0.323821 3:0.254575 
-32768 1:0 2:0.059376 3:0.011549 
-32462.11278683083 1:1.096616 2:0 3:0 
-32768 1:0 2:0.019572 3:0.00924 
-32768 1:0 2:0.676991 3:0.019585 
-32768 1:0 2:0.178306 3:0.00842 
-32768 1:0 2:0.146453 3:0.022578 
-32768 1:0 2:0.123875 3:0.012428 
-32768 1:0 2:0.102744 3:0.01047 
-32768 1:1.360616 2:0.10841 3:0.001351 
-32768 1:0 2:0.102216 3:0.006905 
-32768 1:0 2:0.091935 3:0.021592 
-32768 1:0 2:0.070343 3:0.01309 
-32768 1:0 2:0.05458 3:0.009218 
-32768 1:0.000108 2:0.521383 3:0.035118 
-32768 1:0.010787 2:0.486265 3:0.101032 
-32768 1:0.010787 2:0.385233 3:0.068425 
-32768 1:0.722702 2:0.316807 3:0.085938 
-32768 1:1.52091 2:0.230869 3:0.147038 
-32768 1:0 2:0.083831 3:0.010898 
-32768 1:0 2:0.041092 3:0.009939 
-32768 1:0.126923 2:0.470411 3:0.013573 
-14139.11625522551 1:3.239777 2:0.007015 3:0.002525 
-32768 1:2.300002 2:0.841087 3:0.005051 
-32768 1:1.225491 2:0.515354 3:0.002008 
-32768 1:2.558756 2:0.513345 3:0.008599 
-32768 1:0 2:0.077674 3:0.017499 
-32768 1:0.096877 2:0.751646 3:0.02959 
-32768 1:0.50561 2:0.924453 3:0.025755 
-32768 1:0 2:0.049425 3:0.011428 
-32768 1:0.040775 2:0.014135 3:0.013026 
-32768 1:4.295908 2:3e-06 3:3e-06 
-32768 1:0 2:0.262071 3:0.020596 
-32768 1:0 2:0.241475 3:0.021738 
-32768 1:0 2:0.129287 3:0.018077 
-32768 1:1.319728 2:0.621634 3:0 
-32768 1:0 2:0.065314 3:0.013149 
-32768 1:0 2:0.031731 3:0.008864 
-32768 1:0 2:0.022866 3:0.020186 
-32768 1:0 2:0.152544 3:0.011455 
-32768 1:0 2:0.113314 3:0.010876 
-32768 1:0 2:0.015352 3:0.010304 
-32768 1:0.086308 2:0.052199 3:0.025911 
-32768 1:0 2:0.07746 3:0.015565 
-32768 1:0 2:0.061895 3:0.028632 
-32768 1:0.063807 2:0.975625 3:0.186586 
-32768 1:0.018348 2:0.662315 3:0.011044 
-32768 1:3.435311 2:0.71041 3:0.394167 
-32768 1:0.054923 2:0.316243 3:0.030568 
-32768 1:0 2:0.667992 3:0.059647 
-32768 1:0 2:0.608345 3:0.025601 
-32768 1:0 2:0.582744 3:0.030991 
-32768 1:0 2:0.551753 3:0.00956 
-32768 1:1.925342 2:0.443622 3:0.014012 
-32768 1:-0.011308 2:0.009699 3:0.007348 
-32768 1:0.645757 2:0.469094 3:0.042349 
-32768 1:1.637153 2:0.426745 3:0.012924 
-32768 1:2.834675 2:0.334952 3:0.089062 
-32768 1:1.842925 2:0.396951 3:0.001374 
-32768 1:0 2:0.646747 3:0.039081 
-32768 1:0 2:0.586331 3:0.027389 
-9856.000458741268 1:0 2:0.534104 3:0.00899 
-32768 1:0 2:0.360869 3:0.05537 
-32768 1:0 2:0.305499 3:0.012626 
-32768 1:0 2:0.281583 3:0.049571 
-32768 1:0 2:0.232012 3:0.007978 
-32768 1:0 2:0.106056 3:0.021518 
-32768 1:0 2:0.077341 3:0.035771 
-32768 1:6.206434 2:0.004765 3:0.00025 
-32768 1:-2e-06 2:0.677518 3:0.027553 
-32768 1:0 2:0.491666 3:0.022086 
-32768 1:0 2:0.342116 3:0.024428 
-32768 1:0 2:0.502928 3:0.030925 
-32768 1:0 2:0.472003 3:0.015886 
-32768 1:0 2:0.427025 3:0.050694 
-32768 1:0 2:0.138757 3:0.054734 
-32768 1:0.428137 2:0.016292 3:0.006887 
-32768 1:0.798413 2:0.375762 3:0.024968 
-32768 1:2.977069 2:0.350794 3:0.053415 
-32768 1:0 2:0.07345 3:0.012654 
-32768 1:0 2:0.92172 3:0.035743 
-32768 1:0 2:0.885977 3:0.017915 
-32768 1:0 2:0.080568 3:0.012222 
-32768 1:0.151846 2:0.051171 3:0.029583 
-32768 1:0.231 2:0.01696 3:0.006103 
-32768 1:0 2:0.029318 3:0.010286 
-32768 1:0 2:0.710052 3:0.02722 
-32768 1:0 2:0.661807 3:0.060888 
-32768 1:0 2:0.36069 3:0.01789 
-32768 1:0 2:0.316187 3:0.020277 
-32768 1:0 2:0.275651 3:0.011003 
-32768 1:0 2:0.264649 3:0.034037 
-32768 1:0 2:0.169306 3:0.008778 
-32768 1:0 2:0.156669 3:0.01595 
-32768 1:0 2:0.030675 3:0.0136 
-32768 1:0 2:0.017075 3:0.006469 
-32768 1:0 2:0.224369 3:0.041986 
-32768 1:0 2:0.123966 3:0.01738 
-32768 1:0 2:0.106585 3:0.019537 
-32768 1:0 2:0.087048 3:0.009394 
-32768 1:0.507231 2:0.071042 3:0.007923 
-32768 1:3.188308 2:0.063119 3:0.016296 
-32768 1:0.096615 2:0.046823 3:0.009141 
-32768 1:0 2:0.636788 3:0.037048 
-32768 1:0 2:0.562445 3:0.020363 
-32768 1:7.3e-05 2:0.811045 3:0.039914 
-25738.98307523775 1:7.3e-05 2:0.771131 3:0.01262 
-32768 1:0.007287 2:0.754462 3:0.024125 
-32768 1:0.488259 2:0.730337 3:0.301508 
-32768 1:1.027531 2:0.428829 3:0.10121 
-32768 1:0 2:0.327619 3:0.01495 
-32768 1:0.0155 2:0.01867 3:0.008758 
-32768 1:0 2:0.603631 3:0.011481 
-32768 1:0 2:0.060084 3:0.032079 
-32768 1:0.812065 2:8e-06 3:7e-06 
-32768 1:0.988367 2:0.054233 3:0.001721 
-32768 1:1.131676 2:0.028623 3:0.002116 
-32768 1:0 2:0.019346 3:0.011777 
-32768 1:0 2:0.008077 3:0.006815 
-32768 1:0.639391 2:0.063618 3:0.008982 
-9582.995718201706 1:0.922652 2:0.90862 3:0.001074 
-17365.80436514455 1:1.492616 2:0.042225 3:0.000854 
-32768 1:0 2:0.021262 3:0.011274 
-32768 1:0.560644 2:0.905636 3:0.006469 
-32768 1:0 2:0.157329 3:0.11218 
-32768 1:0 2:0.030306 3:0.007133 
-32768 1:0 2:0.691006 3:0.016191 
-32768 1:0.015582 2:0.424041 3:0.025725 
-32768 1:0.00889 2:0.398316 3:0.013708 
-32768 1:0.147253 2:0.384607 3:0.011725 
-32768 1:0.30989 2:0.372883 3:0.119689 
-32768 1:0 2:0.229267 3:0.013123 
-32768 1:0 2:0.216144 3:0.036112 
-32768 1:0 2:0.180033 3:0.010838 
-32768 1:0 2:0.169195 3:0.018973 
-32768 1:0 2:0.14294 3:0.017606 
-32768 1:0 2:0.743031 3:0.016146 
-32768 1:0 2:0.666761 3:0.018684 
-32768 1:0 2:0.036854 3:0.005704 
-32768 1:0 2:0.117234 3:0.03285 
-32768 1:0 2:0.027943 3:0.012301 
-32768 1:1.532389 2:0.667419 3:0.006462 
-32768 1:0.362898 2:0.081987 3:0.018418 
-32768 1:1.126793 2:0.216495 3:0.000848 
-32768 1:0 2:0.163204 3:0.008715 
-32768 1:0 2:0.098032 3:0.008039 
-32768 1:0 2:0.089994 3:0.018551 
-32768 1:0 2:0.034977 3:0.018629 
-32768 1:0 2:0.752188 3:0.037215 
-32768 1:0 2:0.56686 3:0.014898 
-32768 1:0 2:0.480872 3:0.310687 
-32768 1:0 2:0.170185 3:0.065156 
-32768 1:0 2:0.121158 3:0.049558 
-32768 1:2.1e-05 2:0.660873 3:0.048091 
-32768 1:2.1e-05 2:0.612782 3:0.082943 
-32768 1:0.043706 2:0.518402 3:0.137727 
-32768 1:0 2:0.126999 3:0.00837 
-32768 1:0 2:0.118629 3:0.013595 
-32768 1:0 2:0.072906 3:0.02638 
-32768 1:0.269219 2:0.944613 3:0.012237 
-32768 1:0 2:0.01662 3:0.009765 
-32768 1:0 2:0.198405 3:0.019516 
-32768 1:0 2:0.178889 3:0.146062 
-32768 1:0.0315 2:0.045825 3:0.006599 
-32768 1:0 2:0.037474 3:0.012172 
-32768 1:1.466583 2:0.5891 3:0 
-32768 1:0 2:0.577299 3:0.028515 
-32768 1:0 2:0.494687 3:0.012175 
-32768 1:0 2:0.467217 3:0.034177 
-32768 1:0 2:0.43304 3:0.014388 
-32768 1:0.79208 2:0.100987 3:0.008067 
-32768 1:2.565794 2:0.09292 3:0.034824 
-32768 1:0 2:0.051001 3:0.010511 
-32768 1:0 2:0.04049 3:0.009245 
-32768 1:0.397196 2:0.012123 3:0.006645 
-19526.14801682915 1:0.83589 2:0.005478 3:0.001307 
-32768 1:0 2:0.019839 3:0.016132 
-32768 1:0 2:0.305179 3:0.013064 
-32768 1:0 2:0.092399 3:0.018208 
-32768 1:0 2:0.042953 3:0.030086 
-32768 1:0.81051 2:0.429412 3:0.000904 
-32768 1:0.575449 2:0.428288 3:0.001666 
-32768 1:1.21102 2:0.426623 3:0.023051 
-32768 1:1.170049 2:0.399109 3:0.001939 
-32768 1:0 2:0.281844 3:0.014919 
-32768 1:0 2:0.266925 3:0.011236 
-32768 1:0.052923 2:0.368245 3:0.019231 
-32768 1:3.552074 2:0.117431 3:0.033996 
